digraph Tree {
node [shape=box, style="filled, rounded", color="black", fontname="helvetica"] ;
edge [fontname="helvetica"] ;
0 [label="interactionTime <= 0.0\ngini = 0.5\nsamples = 408530\nvalue = [322995.21, 316721.06]", fillcolor="#fefdfb"] ;
1 [label="maxPrice <= 0.65\ngini = 0.5\nsamples = 396728\nvalue = [314105.14, 272693.05]", fillcolor="#fceee5"] ;
0 -> 1 [labeldistance=2.5, labelangle=45, headlabel="True"] ;
2 [label="maxPrice <= 0.05\ngini = 0.5\nsamples = 392990\nvalue = [311142.46, 272117.52]", fillcolor="#fcefe6"] ;
1 -> 2 ;
3 [label="NumView <= 0.06\ngini = 0.49\nsamples = 160023\nvalue = [126900.95, 98163.74]", fillcolor="#f9e2d2"] ;
2 -> 3 ;
4 [label="maxPrice <= 0.0\ngini = 0.09\nsamples = 7519\nvalue = [4636.95, 98163.74]", fillcolor="#42a2e6"] ;
3 -> 4 ;
5 [label="gini = 0.0\nsamples = 30\nvalue = [27.38, 0.0]", fillcolor="#e58139"] ;
4 -> 5 ;
6 [label="timeOfDay <= 0.75\ngini = 0.09\nsamples = 7489\nvalue = [4609.57, 98163.74]", fillcolor="#42a2e6"] ;
4 -> 6 ;
7 [label="(...)", fillcolor="#C0C0C0"] ;
6 -> 7 ;
12 [label="(...)", fillcolor="#C0C0C0"] ;
6 -> 12 ;
53 [label="timeOfDay <= 0.08\ngini = 0.0\nsamples = 152504\nvalue = [122264.0, 0.0]", fillcolor="#e58139"] ;
3 -> 53 ;
54 [label="gini = 0.0\nsamples = 19320\nvalue = [15476.63, 0.0]", fillcolor="#e58139"] ;
53 -> 54 ;
55 [label="gini = 0.0\nsamples = 133184\nvalue = [106787.37, 0.0]", fillcolor="#e58139"] ;
53 -> 55 ;
56 [label="NumView <= 0.06\ngini = 0.5\nsamples = 232967\nvalue = [184241.5, 173953.78]", fillcolor="#fef8f4"] ;
2 -> 56 ;
57 [label="NumCart <= 0.06\ngini = 0.08\nsamples = 12948\nvalue = [7833.39, 173953.78]", fillcolor="#42a1e6"] ;
56 -> 57 ;
58 [label="gini = 0.0\nsamples = 3121\nvalue = [0.0, 173953.78]", fillcolor="#399de5"] ;
57 -> 58 ;
59 [label="gini = -0.0\nsamples = 9827\nvalue = [7833.39, 0.0]", fillcolor="#e58139"] ;
57 -> 59 ;
60 [label="maxPrice <= 0.05\ngini = 0.0\nsamples = 220019\nvalue = [176408.12, 0.0]", fillcolor="#e58139"] ;
56 -> 60 ;
61 [label="gini = 0.0\nsamples = 1\nvalue = [1.01, 0.0]", fillcolor="#e58139"] ;
60 -> 61 ;
62 [label="gini = 0.0\nsamples = 220018\nvalue = [176407.1, 0.0]", fillcolor="#e58139"] ;
60 -> 62 ;
63 [label="maxPrice <= 0.91\ngini = 0.27\nsamples = 3738\nvalue = [2962.68, 575.53]", fillcolor="#ea995f"] ;
1 -> 63 ;
64 [label="NumView <= 0.06\ngini = 0.35\nsamples = 2519\nvalue = [1995.23, 575.53]", fillcolor="#eca572"] ;
63 -> 64 ;
65 [label="maxPrice <= 0.7\ngini = 0.1\nsamples = 49\nvalue = [30.42, 575.53]", fillcolor="#43a2e6"] ;
64 -> 65 ;
66 [label="gini = 0.0\nsamples = 9\nvalue = [5.58, 0.0]", fillcolor="#e58139"] ;
65 -> 66 ;
67 [label="maxPrice <= 0.79\ngini = 0.08\nsamples = 40\nvalue = [24.85, 575.53]", fillcolor="#42a1e6"] ;
65 -> 67 ;
68 [label="(...)", fillcolor="#C0C0C0"] ;
67 -> 68 ;
95 [label="(...)", fillcolor="#C0C0C0"] ;
67 -> 95 ;
102 [label="NumCart <= 0.06\ngini = 0.0\nsamples = 2470\nvalue = [1964.81, 0.0]", fillcolor="#e58139"] ;
64 -> 102 ;
103 [label="gini = 0.0\nsamples = 2469\nvalue = [1963.8, 0.0]", fillcolor="#e58139"] ;
102 -> 103 ;
104 [label="gini = 0.0\nsamples = 1\nvalue = [1.01, 0.0]", fillcolor="#e58139"] ;
102 -> 104 ;
105 [label="weekday <= 0.08\ngini = 0.0\nsamples = 1219\nvalue = [967.45, 0.0]", fillcolor="#e58139"] ;
63 -> 105 ;
106 [label="gini = 0.0\nsamples = 136\nvalue = [103.44, 0.0]", fillcolor="#e58139"] ;
105 -> 106 ;
107 [label="gini = 0.0\nsamples = 1083\nvalue = [864.01, 0.0]", fillcolor="#e58139"] ;
105 -> 107 ;
108 [label="interactionTime <= 0.77\ngini = 0.28\nsamples = 11802\nvalue = [8890.07, 44028.0]", fillcolor="#61b1ea"] ;
0 -> 108 [labeldistance=2.5, labelangle=-45, headlabel="False"] ;
109 [label="NumCart <= 0.06\ngini = 0.28\nsamples = 11742\nvalue = [8841.9, 44028.0]", fillcolor="#61b1ea"] ;
108 -> 109 ;
110 [label="NumView <= 0.17\ngini = 0.31\nsamples = 9253\nvalue = [7029.21, 29999.47]", fillcolor="#67b4eb"] ;
109 -> 110 ;
111 [label="gini = 0.0\nsamples = 508\nvalue = [0.0, 27985.12]", fillcolor="#399de5"] ;
110 -> 111 ;
112 [label="timeOfDay <= 0.58\ngini = 0.35\nsamples = 8745\nvalue = [7029.21, 2014.35]", fillcolor="#eca572"] ;
110 -> 112 ;
113 [label="InsessionView <= 0.02\ngini = 0.39\nsamples = 5027\nvalue = [4052.33, 1474.79]", fillcolor="#eeaf81"] ;
112 -> 113 ;
114 [label="(...)", fillcolor="#C0C0C0"] ;
113 -> 114 ;
259 [label="(...)", fillcolor="#C0C0C0"] ;
113 -> 259 ;
300 [label="InsessionView <= 0.1\ngini = 0.26\nsamples = 3718\nvalue = [2976.88, 539.56]", fillcolor="#ea985d"] ;
112 -> 300 ;
301 [label="(...)", fillcolor="#C0C0C0"] ;
300 -> 301 ;
360 [label="(...)", fillcolor="#C0C0C0"] ;
300 -> 360 ;
369 [label="NumCart <= 0.17\ngini = 0.2\nsamples = 2489\nvalue = [1812.7, 14028.53]", fillcolor="#53aae8"] ;
109 -> 369 ;
370 [label="weekday <= 0.92\ngini = 0.19\nsamples = 2082\nvalue = [1502.38, 12985.38]", fillcolor="#50a8e8"] ;
369 -> 370 ;
371 [label="InsessionView <= 0.01\ngini = 0.2\nsamples = 1688\nvalue = [1236.18, 9532.21]", fillcolor="#53aae8"] ;
370 -> 371 ;
372 [label="(...)", fillcolor="#C0C0C0"] ;
371 -> 372 ;
373 [label="(...)", fillcolor="#C0C0C0"] ;
371 -> 373 ;
484 [label="NumView <= 0.06\ngini = 0.13\nsamples = 394\nvalue = [266.2, 3453.18]", fillcolor="#48a5e7"] ;
370 -> 484 ;
485 [label="(...)", fillcolor="#C0C0C0"] ;
484 -> 485 ;
486 [label="(...)", fillcolor="#C0C0C0"] ;
484 -> 486 ;
525 [label="maxPrice <= 0.04\ngini = 0.35\nsamples = 407\nvalue = [310.31, 1043.15]", fillcolor="#74baed"] ;
369 -> 525 ;
526 [label="gini = 0.0\nsamples = 83\nvalue = [63.89, 0.0]", fillcolor="#e58139"] ;
525 -> 526 ;
527 [label="NumOfEventsInJourney <= 0.14\ngini = 0.31\nsamples = 324\nvalue = [246.43, 1043.15]", fillcolor="#68b4eb"] ;
525 -> 527 ;
528 [label="(...)", fillcolor="#C0C0C0"] ;
527 -> 528 ;
529 [label="(...)", fillcolor="#C0C0C0"] ;
527 -> 529 ;
598 [label="gini = -0.0\nsamples = 60\nvalue = [48.17, 0.0]", fillcolor="#e58139"] ;
108 -> 598 ;
}